<?xml version="1.0"?>
<opencv_storage>
<cascade>
  <stageType>BOOST</stageType>
  <featureType>HAAR</featureType>
  <height>24</height>
  <width>24</width>
  <stageParams>
    <boostType>GAB</boostType>
    <minHitRate>9.9500000476837158e-01</minHitRate>
    <maxFalseAlarm>5.0000000000000000e-01</maxFalseAlarm>
    <weightTrimRate>9.4999998807907104e-01</weightTrimRate>
    <maxDepth>1</maxDepth>
    <maxWeakCount>100</maxWeakCount></stageParams>
  <featureParams>
    <maxCatCount>0</maxCatCount>
    <featSize>1</featSize>
    <mode>BASIC</mode></featureParams>
  <stageNum>16</stageNum>
  <stages>
    <!-- stage 0 -->
    <_>
      <maxWeakCount>3</maxWeakCount>
      <stageThreshold>-1.4676935672760010e+00</stageThreshold>
      <weakClassifiers>
        <_>
          <internalNodes>
            0 -1 12 9.6372291445732117e-02</internalNodes>
          <leafValues>
            -8.7988561391830444e-01 6.8181818723678589e-01</leafValues></_>
        <_>
          <internalNodes>
            0 -1 39 -8.7036609649658203e-02</internalNodes>
          <leafValues>
            3.6176136136054993e-01 -9.6112996339797974e-01</leafValues></_>
        <_>
          <internalNodes>
            0 -1 48 -2.4850914254784584e-02</internalNodes>
          <leafValues>
            3.7332203984260559e-01 -9.2974573373794556e-01</leafValues></_></weakClassifiers></_>
    <!-- stage 1 -->
    <_>
      <maxWeakCount>3</maxWeakCount>
      <stageThreshold>-1.2637258768081665e+00</stageThreshold>
      <weakClassifiers>
        <_>
          <internalNodes>
            0 -1 41 -6.9447532296180725e-02</internalNodes>
          <leafValues>
            3.0769231915473938e-01 -9.2864423990249634e-01</leafValues></_>
        <_>
          <internalNodes>
            0 -1 2 1.0358134657144547e-01</internalNodes>
          <leafValues>
            -8.4610408544540405e-01 3.2544988393783569e-01</leafValues></_>
        <_>
          <internalNodes>
            0 -1 77 6.2332369387149811e-02</internalNodes>
          <leafValues>
            -6.6053152084350586e-01 8.4144717454910278e-01</leafValues></_></weakClassifiers></_>
    <!-- stage 2 -->
    <_>
      <maxWeakCount>5</maxWeakCount>
      <stageThreshold>-1.7000271081924438e+00</stageThreshold>
      <weakClassifiers>
        <_>
          <internalNodes>
            0 -1 28 4.3792389333248138e-02</internalNodes>
          <leafValues>
            -8.8721048831939697e-01 1.2500000000000000e-01</leafValues></_>
        <_>
          <internalNodes>
            0 -1 68 -2.5011986494064331e-02</internalNodes>
          <leafValues>
            1.8643097579479218e-01 -7.8347063064575195e-01</leafValues></_>
        <_>
          <internalNodes>
            0 -1 33 2.2746313363313675e-02</internalNodes>
          <leafValues>
            -8.4478086233139038e-01 3.0351915955543518e-01</leafValues></_>
        <_>
          <internalNodes>
            0 -1 55 2.3299953900277615e-03</internalNodes>
          <leafValues>
            -4.6625950932502747e-01 6.5675956010818481e-01</leafValues></_>
        <_>
          <internalNodes>
            0 -1 82 -1.1781036300817505e-04</internalNodes>
          <leafValues>
            4.2824015021324158e-01 -8.3650732040405273e-01</leafValues></_></weakClassifiers></_>
    <!-- stage 3 -->
    <_>
      <maxWeakCount>6</maxWeakCount>
      <stageThreshold>-2.0388507843017578e+00</stageThreshold>
      <weakClassifiers>
        <_>
          <internalNodes>
            0 -1 61 1.3274268805980682e-01</internalNodes>
          <leafValues>
            -8.3551400899887085e-01 4.6268656849861145e-01</leafValues></_>
        <_>
          <internalNodes>
            0 -1 42 -1.4489799737930298e-01</internalNodes>
          <leafValues>
            5.8713001012802124e-01 -6.9313979148864746e-01</leafValues></_>
        <_>
          <internalNodes>
            0 -1 53 1.6056848689913750e-03</internalNodes>
          <leafValues>
            -6.5958416461944580e-01 4.1201919317245483e-01</leafValues></_>
        <_>
          <internalNodes>
            0 -1 1 3.9323233067989349e-02</internalNodes>
          <leafValues>
            -5.6045794486999512e-01 5.5587989091873169e-01</leafValues></_>
        <_>
          <internalNodes>
            0 -1 49 -3.1381972134113312e-02</internalNodes>
          <leafValues>
            4.3673050403594971e-01 -6.9779509305953979e-01</leafValues></_>
        <_>
          <internalNodes>
            0 -1 54 -2.2150110453367233e-02</internalNodes>
          <leafValues>
            3.3603700995445251e-01 -9.4511955976486206e-01</leafValues></_></weakClassifiers></_>
    <!-- stage 4 -->
    <_>
      <maxWeakCount>5</maxWeakCount>
      <stageThreshold>-1.4590796232223511e+00</stageThreshold>
      <weakClassifiers>
        <_>
          <internalNodes>
            0 -1 8 1.3162741065025330e-01</internalNodes>
          <leafValues>
            -8.8809764385223389e-01 6.4935065805912018e-02</leafValues></_>
        <_>
          <internalNodes>
            0 -1 25 -1.4303286373615265e-01</internalNodes>
          <leafValues>
            6.8452161550521851e-01 -5.9037780761718750e-01</leafValues></_>
        <_>
          <internalNodes>
            0 -1 7 1.3272199034690857e-01</internalNodes>
          <leafValues>
            -5.3819715976715088e-01 6.0333907604217529e-01</leafValues></_>
        <_>
          <internalNodes>
            0 -1 81 -2.4917073460528627e-05</internalNodes>
          <leafValues>
            3.5590356588363647e-01 -9.0007489919662476e-01</leafValues></_>
        <_>
          <internalNodes>
            0 -1 20 -2.6821064949035645e-01</internalNodes>
          <leafValues>
            -1. 2.0168937742710114e-01</leafValues></_></weakClassifiers></_>
    <!-- stage 5 -->
    <_>
      <maxWeakCount>5</maxWeakCount>
      <stageThreshold>-1.3189852237701416e+00</stageThreshold>
      <weakClassifiers>
        <_>
          <internalNodes>
            0 -1 73 1.1362212896347046e-01</internalNodes>
          <leafValues>
            -8.2739210128784180e-01 2.6760563254356384e-01</leafValues></_>
        <_>
          <internalNodes>
            0 -1 51 -8.4273308515548706e-02</internalNodes>
          <leafValues>
            6.7173749208450317e-01 -5.3263211250305176e-01</leafValues></_>
        <_>
          <internalNodes>
            0 -1 34 -7.1056216955184937e-02</internalNodes>
          <leafValues>
            2.7806881070137024e-01 -9.4639354944229126e-01</leafValues></_>
        <_>
          <internalNodes>
            0 -1 70 2.6351884007453918e-02</internalNodes>
          <leafValues>
            -4.3228989839553833e-01 7.1252453327178955e-01</leafValues></_>
        <_>
          <internalNodes>
            0 -1 80 -2.6033287867903709e-03</internalNodes>
          <leafValues>
            -9.8941278457641602e-01 2.7490803599357605e-01</leafValues></_></weakClassifiers></_>
    <!-- stage 6 -->
    <_>
      <maxWeakCount>6</maxWeakCount>
      <stageThreshold>-2.2802848815917969e+00</stageThreshold>
      <weakClassifiers>
        <_>
          <internalNodes>
            0 -1 23 1.1684834957122803e-01</internalNodes>
          <leafValues>
            -8.5004866123199463e-01 9.0909093618392944e-02</leafValues></_>
        <_>
          <internalNodes>
            0 -1 36 1.1147456243634224e-02</internalNodes>
          <leafValues>
            -5.8527648448944092e-01 3.7955746054649353e-01</leafValues></_>
        <_>
          <internalNodes>
            0 -1 11 1.2333766790106893e-05</internalNodes>
          <leafValues>
            -7.0763254165649414e-01 3.3867362141609192e-01</leafValues></_>
        <_>
          <internalNodes>
            0 -1 65 -2.0212676376104355e-02</internalNodes>
          <leafValues>
            3.5029810667037964e-01 -6.7646819353103638e-01</leafValues></_>
        <_>
          <internalNodes>
            0 -1 71 7.9972809180617332e-03</internalNodes>
          <leafValues>
            3.3781856298446655e-01 -8.6029529571533203e-01</leafValues></_>
        <_>
          <internalNodes>
            0 -1 14 -6.0452329926192760e-03</internalNodes>
          <leafValues>
            -8.4498369693756104e-01 2.6661333441734314e-01</leafValues></_></weakClassifiers></_>
    <!-- stage 7 -->
    <_>
      <maxWeakCount>5</maxWeakCount>
      <stageThreshold>-1.4714268445968628e+00</stageThreshold>
      <weakClassifiers>
        <_>
          <internalNodes>
            0 -1 74 8.7286092340946198e-02</internalNodes>
          <leafValues>
            -8.3819377422332764e-01 3.7837839126586914e-01</leafValues></_>
        <_>
          <internalNodes>
            0 -1 64 -1.1505625396966934e-01</internalNodes>
          <leafValues>
            5.6853979825973511e-01 -5.7052671909332275e-01</leafValues></_>
        <_>
          <internalNodes>
            0 -1 50 -9.0502724051475525e-03</internalNodes>
          <leafValues>
            4.9733027815818787e-01 -6.2450903654098511e-01</leafValues></_>
        <_>
          <internalNodes>
            0 -1 26 8.4957052022218704e-03</internalNodes>
          <leafValues>
            -8.3803367614746094e-01 2.4691934883594513e-01</leafValues></_>
        <_>
          <internalNodes>
            0 -1 38 -2.9105763882398605e-02</internalNodes>
          <leafValues>
            3.1488332152366638e-01 -6.7883920669555664e-01</leafValues></_></weakClassifiers></_>
    <!-- stage 8 -->
    <_>
      <maxWeakCount>5</maxWeakCount>
      <stageThreshold>-1.6385061740875244e+00</stageThreshold>
      <weakClassifiers>
        <_>
          <internalNodes>
            0 -1 21 1.4424841105937958e-01</internalNodes>
          <leafValues>
            -8.5337245464324951e-01 8.7719298899173737e-02</leafValues></_>
        <_>
          <internalNodes>
            0 -1 69 4.8766182735562325e-03</internalNodes>
          <leafValues>
            -5.9858715534210205e-01 3.7750190496444702e-01</leafValues></_>
        <_>
          <internalNodes>
            0 -1 44 -8.3190001547336578e-02</internalNodes>
          <leafValues>
            2.2397954761981964e-01 -8.4857112169265747e-01</leafValues></_>
        <_>
          <internalNodes>
            0 -1 84 -1.2158002391515765e-05</internalNodes>
          <leafValues>
            2.2822380065917969e-01 -8.8355463743209839e-01</leafValues></_>
        <_>
          <internalNodes>
            0 -1 63 1.3838151935487986e-03</internalNodes>
          <leafValues>
            -4.8922592401504517e-01 4.3380072712898254e-01</leafValues></_></weakClassifiers></_>
    <!-- stage 9 -->
    <_>
      <maxWeakCount>5</maxWeakCount>
      <stageThreshold>-1.5288860797882080e+00</stageThreshold>
      <weakClassifiers>
        <_>
          <internalNodes>
            0 -1 22 1.0275299847126007e-01</internalNodes>
          <leafValues>
            -8.6331659555435181e-01 -2.8169013559818268e-02</leafValues></_>
        <_>
          <internalNodes>
            0 -1 32 8.6602158844470978e-02</internalNodes>
          <leafValues>
            -5.0383782386779785e-01 6.6994112730026245e-01</leafValues></_>
        <_>
          <internalNodes>
            0 -1 45 2.3960070684552193e-03</internalNodes>
          <leafValues>
            -4.5590910315513611e-01 4.8470565676689148e-01</leafValues></_>
        <_>
          <internalNodes>
            0 -1 19 2.9385550078586675e-05</internalNodes>
          <leafValues>
            -8.0995345115661621e-01 2.8215169906616211e-01</leafValues></_>
        <_>
          <internalNodes>
            0 -1 86 -1.1560354614630342e-03</internalNodes>
          <leafValues>
            -8.2312190532684326e-01 2.3585826158523560e-01</leafValues></_></weakClassifiers></_>
    <!-- stage 10 -->
    <_>
      <maxWeakCount>8</maxWeakCount>
      <stageThreshold>-1.5649781227111816e+00</stageThreshold>
      <weakClassifiers>
        <_>
          <internalNodes>
            0 -1 72 1.6232702136039734e-01</internalNodes>
          <leafValues>
            -8.2193064689636230e-01 2.0000000298023224e-01</leafValues></_>
        <_>
          <internalNodes>
            0 -1 27 1.9592840224504471e-02</internalNodes>
          <leafValues>
            -5.8571797609329224e-01 3.3257985115051270e-01</leafValues></_>
        <_>
          <internalNodes>
            0 -1 37 1.8026150763034821e-02</internalNodes>
          <leafValues>
            -3.9875075221061707e-01 5.7616084814071655e-01</leafValues></_>
        <_>
          <internalNodes>
            0 -1 79 1.2064854672644287e-05</internalNodes>
          <leafValues>
            -7.2445476055145264e-01 2.9919654130935669e-01</leafValues></_>
        <_>
          <internalNodes>
            0 -1 79 2.4965289048850536e-04</internalNodes>
          <leafValues>
            4.1748574376106262e-01 -5.9869229793548584e-01</leafValues></_>
        <_>
          <internalNodes>
            0 -1 57 -8.7883938103914261e-03</internalNodes>
          <leafValues>
            1.8991018831729889e-01 -7.7290612459182739e-01</leafValues></_>
        <_>
          <internalNodes>
            0 -1 75 1.1843506246805191e-02</internalNodes>
          <leafValues>
            2.3745365440845490e-01 -7.8564578294754028e-01</leafValues></_>
        <_>
          <internalNodes>
            0 -1 85 -1.4139807717583608e-05</internalNodes>
          <leafValues>
            2.2582803666591644e-01 -7.6791721582412720e-01</leafValues></_></weakClassifiers></_>
    <!-- stage 11 -->
    <_>
      <maxWeakCount>6</maxWeakCount>
      <stageThreshold>-1.9730343818664551e+00</stageThreshold>
      <weakClassifiers>
        <_>
          <internalNodes>
            0 -1 9 1.0271997749805450e-01</internalNodes>
          <leafValues>
            -8.3783781528472900e-01 4.9504950642585754e-02</leafValues></_>
        <_>
          <internalNodes>
            0 -1 30 -4.2086124420166016e-02</internalNodes>
          <leafValues>
            1.1051252484321594e-01 -7.7658689022064209e-01</leafValues></_>
        <_>
          <internalNodes>
            0 -1 13 -1.7260935157537460e-02</internalNodes>
          <leafValues>
            -8.3662092685699463e-01 1.7998184263706207e-01</leafValues></_>
        <_>
          <internalNodes>
            0 -1 5 -9.8418071866035461e-04</internalNodes>
          <leafValues>
            -9.3572080135345459e-01 2.1143689751625061e-01</leafValues></_>
        <_>
          <internalNodes>
            0 -1 3 1.2388397008180618e-03</internalNodes>
          <leafValues>
            1.8582434952259064e-01 -9.8674684762954712e-01</leafValues></_>
        <_>
          <internalNodes>
            0 -1 24 5.3876817226409912e-02</internalNodes>
          <leafValues>
            1.5350016951560974e-01 -9.3585276603698730e-01</leafValues></_></weakClassifiers></_>
    <!-- stage 12 -->
    <_>
      <maxWeakCount>6</maxWeakCount>
      <stageThreshold>-1.6461999416351318e+00</stageThreshold>
      <weakClassifiers>
        <_>
          <internalNodes>
            0 -1 59 2.3968184366822243e-02</internalNodes>
          <leafValues>
            -8.2086795568466187e-01 4.8148149251937866e-01</leafValues></_>
        <_>
          <internalNodes>
            0 -1 40 1.3775264378637075e-03</internalNodes>
          <leafValues>
            -8.1482726335525513e-01 7.9160980880260468e-02</leafValues></_>
        <_>
          <internalNodes>
            0 -1 78 -2.6545021682977676e-03</internalNodes>
          <leafValues>
            -6.9544005393981934e-01 2.5187358260154724e-01</leafValues></_>
        <_>
          <internalNodes>
            0 -1 0 -9.4032729975879192e-04</internalNodes>
          <leafValues>
            -8.8999497890472412e-01 1.7444148659706116e-01</leafValues></_>
        <_>
          <internalNodes>
            0 -1 43 1.1350495042279363e-03</internalNodes>
          <leafValues>
            -4.8522019386291504e-01 4.0501955151557922e-01</leafValues></_>
        <_>
          <internalNodes>
            0 -1 29 -1.0619117529131472e-04</internalNodes>
          <leafValues>
            -7.8084945678710938e-01 2.7592247724533081e-01</leafValues></_></weakClassifiers></_>
    <!-- stage 13 -->
    <_>
      <maxWeakCount>8</maxWeakCount>
      <stageThreshold>-1.7518160343170166e+00</stageThreshold>
      <weakClassifiers>
        <_>
          <internalNodes>
            0 -1 46 3.0196553096175194e-02</internalNodes>
          <leafValues>
            -8.3285850286483765e-01 1.6666667163372040e-01</leafValues></_>
        <_>
          <internalNodes>
            0 -1 56 -1.6942132264375687e-02</internalNodes>
          <leafValues>
            4.2856892943382263e-01 -5.1340883970260620e-01</leafValues></_>
        <_>
          <internalNodes>
            0 -1 47 3.5673696547746658e-03</internalNodes>
          <leafValues>
            -3.6068615317344666e-01 6.3711100816726685e-01</leafValues></_>
        <_>
          <internalNodes>
            0 -1 18 -1.4097231440246105e-02</internalNodes>
          <leafValues>
            -7.1955686807632446e-01 2.9748207330703735e-01</leafValues></_>
        <_>
          <internalNodes>
            0 -1 16 2.7566419914364815e-02</internalNodes>
          <leafValues>
            2.5128880143165588e-01 -8.9616692066192627e-01</leafValues></_>
        <_>
          <internalNodes>
            0 -1 15 -2.0089896395802498e-02</internalNodes>
          <leafValues>
            -9.4971030950546265e-01 1.6261813044548035e-01</leafValues></_>
        <_>
          <internalNodes>
            0 -1 31 -1.2503374367952347e-02</internalNodes>
          <leafValues>
            2.1092872321605682e-01 -7.9399931430816650e-01</leafValues></_>
        <_>
          <internalNodes>
            0 -1 10 -9.2603929340839386e-02</internalNodes>
          <leafValues>
            -9.6196490526199341e-01 1.8027547001838684e-01</leafValues></_></weakClassifiers></_>
    <!-- stage 14 -->
    <_>
      <maxWeakCount>6</maxWeakCount>
      <stageThreshold>-1.6688904762268066e+00</stageThreshold>
      <weakClassifiers>
        <_>
          <internalNodes>
            0 -1 76 2.6996742933988571e-02</internalNodes>
          <leafValues>
            -8.5954499244689941e-01 4.7619048506021500e-02</leafValues></_>
        <_>
          <internalNodes>
            0 -1 35 3.2097562216222286e-03</internalNodes>
          <leafValues>
            -6.3024955987930298e-01 3.1552022695541382e-01</leafValues></_>
        <_>
          <internalNodes>
            0 -1 66 9.5879696309566498e-03</internalNodes>
          <leafValues>
            -3.4673452377319336e-01 6.3051390647888184e-01</leafValues></_>
        <_>
          <internalNodes>
            0 -1 52 1.4908446464687586e-03</internalNodes>
          <leafValues>
            -5.9688675403594971e-01 3.8182404637336731e-01</leafValues></_>
        <_>
          <internalNodes>
            0 -1 83 -1.2333766790106893e-05</internalNodes>
          <leafValues>
            3.1600344181060791e-01 -6.7035841941833496e-01</leafValues></_>
        <_>
          <internalNodes>
            0 -1 60 -1.0509755229577422e-03</internalNodes>
          <leafValues>
            4.8176467418670654e-01 -4.1805005073547363e-01</leafValues></_></weakClassifiers></_>
    <!-- stage 15 -->
    <_>
      <maxWeakCount>6</maxWeakCount>
      <stageThreshold>-2.2997529506683350e+00</stageThreshold>
      <weakClassifiers>
        <_>
          <internalNodes>
            0 -1 6 2.1185939013957977e-01</internalNodes>
          <leafValues>
            -8.1488204002380371e-01 1.</leafValues></_>
        <_>
          <internalNodes>
            0 -1 4 1.3697451353073120e-01</internalNodes>
          <leafValues>
            -6.5806126594543457e-01 4.3683156371116638e-01</leafValues></_>
        <_>
          <internalNodes>
            0 -1 58 -1.5586884692311287e-02</internalNodes>
          <leafValues>
            4.4855141639709473e-01 -5.0890278816223145e-01</leafValues></_>
        <_>
          <internalNodes>
            0 -1 62 -7.8657288104295731e-03</internalNodes>
          <leafValues>
            3.7142696976661682e-01 -7.0440399646759033e-01</leafValues></_>
        <_>
          <internalNodes>
            0 -1 67 1.6243834979832172e-03</internalNodes>
          <leafValues>
            -4.2329499125480652e-01 6.2473338842391968e-01</leafValues></_>
        <_>
          <internalNodes>
            0 -1 17 3.2683420926332474e-02</internalNodes>
          <leafValues>
            -2.8510069847106934e-01 8.7723308801651001e-01</leafValues></_></weakClassifiers></_></stages>
  <features>
    <_>
      <rects>
        <_>
          0 0 3 6 -1.</_>
        <_>
          0 2 3 2 3.</_></rects>
      <tilted>0</tilted></_>
    <_>
      <rects>
        <_>
          0 0 6 15 -1.</_>
        <_>
          3 0 3 15 2.</_></rects>
      <tilted>0</tilted></_>
    <_>
      <rects>
        <_>
          0 0 24 7 -1.</_>
        <_>
          8 0 8 7 3.</_></rects>
      <tilted>0</tilted></_>
    <_>
      <rects>
        <_>
          0 2 2 6 -1.</_>
        <_>
          0 5 2 3 2.</_></rects>
      <tilted>0</tilted></_>
    <_>
      <rects>
        <_>
          0 2 12 9 -1.</_>
        <_>
          6 2 6 9 2.</_></rects>
      <tilted>0</tilted></_>
    <_>
      <rects>
        <_>
          0 3 3 6 -1.</_>
        <_>
          0 5 3 2 3.</_></rects>
      <tilted>0</tilted></_>
    <_>
      <rects>
        <_>
          0 3 9 17 -1.</_>
        <_>
          3 3 3 17 3.</_></rects>
      <tilted>0</tilted></_>
    <_>
      <rects>
        <_>
          0 7 10 17 -1.</_>
        <_>
          5 7 5 17 2.</_></rects>
      <tilted>0</tilted></_>
    <_>
      <rects>
        <_>
          0 8 8 16 -1.</_>
        <_>
          4 8 4 16 2.</_></rects>
      <tilted>0</tilted></_>
    <_>
      <rects>
        <_>
          0 9 9 9 -1.</_>
        <_>
          3 9 3 9 3.</_></rects>
      <tilted>0</tilted></_>
    <_>
      <rects>
        <_>
          0 9 17 12 -1.</_>
        <_>
          0 13 17 4 3.</_></rects>
      <tilted>0</tilted></_>
    <_>
      <rects>
        <_>
          0 10 2 1 -1.</_>
        <_>
          1 10 1 1 2.</_></rects>
      <tilted>0</tilted></_>
    <_>
      <rects>
        <_>
          0 10 12 6 -1.</_>
        <_>
          4 10 4 6 3.</_></rects>
      <tilted>0</tilted></_>
    <_>
      <rects>
        <_>
          0 11 22 5 -1.</_>
        <_>
          11 11 11 5 2.</_></rects>
      <tilted>0</tilted></_>
    <_>
      <rects>
        <_>
          0 12 20 1 -1.</_>
        <_>
          10 12 10 1 2.</_></rects>
      <tilted>0</tilted></_>
    <_>
      <rects>
        <_>
          0 12 10 8 -1.</_>
        <_>
          0 16 10 4 2.</_></rects>
      <tilted>0</tilted></_>
    <_>
      <rects>
        <_>
          0 12 24 2 -1.</_>
        <_>
          12 12 12 2 2.</_></rects>
      <tilted>0</tilted></_>
    <_>
      <rects>
        <_>
          0 13 9 3 -1.</_>
        <_>
          3 13 3 3 3.</_></rects>
      <tilted>0</tilted></_>
    <_>
      <rects>
        <_>
          0 15 24 4 -1.</_>
        <_>
          12 15 12 4 2.</_></rects>
      <tilted>0</tilted></_>
    <_>
      <rects>
        <_>
          1 1 4 1 -1.</_>
        <_>
          3 1 2 1 2.</_></rects>
      <tilted>0</tilted></_>
    <_>
      <rects>
        <_>
          1 2 23 16 -1.</_>
        <_>
          1 10 23 8 2.</_></rects>
      <tilted>0</tilted></_>
    <_>
      <rects>
        <_>
          1 8 9 14 -1.</_>
        <_>
          4 8 3 14 3.</_></rects>
      <tilted>0</tilted></_>
    <_>
      <rects>
        <_>
          1 9 9 10 -1.</_>
        <_>
          4 9 3 10 3.</_></rects>
      <tilted>0</tilted></_>
    <_>
      <rects>
        <_>
          1 11 9 10 -1.</_>
        <_>
          4 11 3 10 3.</_></rects>
      <tilted>0</tilted></_>
    <_>
      <rects>
        <_>
          1 11 22 4 -1.</_>
        <_>
          12 11 11 4 2.</_></rects>
      <tilted>0</tilted></_>
    <_>
      <rects>
        <_>
          2 11 15 10 -1.</_>
        <_>
          7 11 5 10 3.</_></rects>
      <tilted>0</tilted></_>
    <_>
      <rects>
        <_>
          3 4 21 2 -1.</_>
        <_>
          10 4 7 2 3.</_></rects>
      <tilted>0</tilted></_>
    <_>
      <rects>
        <_>
          3 10 6 5 -1.</_>
        <_>
          5 10 2 5 3.</_></rects>
      <tilted>0</tilted></_>
    <_>
      <rects>
        <_>
          3 10 6 14 -1.</_>
        <_>
          5 10 2 14 3.</_></rects>
      <tilted>0</tilted></_>
    <_>
      <rects>
        <_>
          4 0 6 1 -1.</_>
        <_>
          7 0 3 1 2.</_></rects>
      <tilted>0</tilted></_>
    <_>
      <rects>
        <_>
          4 0 10 16 -1.</_>
        <_>
          4 0 5 8 2.</_>
        <_>
          9 8 5 8 2.</_></rects>
      <tilted>0</tilted></_>
    <_>
      <rects>
        <_>
          4 9 13 8 -1.</_>
        <_>
          4 13 13 4 2.</_></rects>
      <tilted>0</tilted></_>
    <_>
      <rects>
        <_>
          4 10 9 8 -1.</_>
        <_>
          7 10 3 8 3.</_></rects>
      <tilted>0</tilted></_>
    <_>
      <rects>
        <_>
          5 0 12 12 -1.</_>
        <_>
          5 4 12 4 3.</_></rects>
      <tilted>0</tilted></_>
    <_>
      <rects>
        <_>
          5 3 19 16 -1.</_>
        <_>
          5 11 19 8 2.</_></rects>
      <tilted>0</tilted></_>
    <_>
      <rects>
        <_>
          5 5 12 3 -1.</_>
        <_>
          5 6 12 1 3.</_></rects>
      <tilted>0</tilted></_>
    <_>
      <rects>
        <_>
          5 10 6 3 -1.</_>
        <_>
          7 10 2 3 3.</_></rects>
      <tilted>0</tilted></_>
    <_>
      <rects>
        <_>
          5 11 6 8 -1.</_>
        <_>
          7 11 2 8 3.</_></rects>
      <tilted>0</tilted></_>
    <_>
      <rects>
        <_>
          5 12 13 12 -1.</_>
        <_>
          5 16 13 4 3.</_></rects>
      <tilted>0</tilted></_>
    <_>
      <rects>
        <_>
          6 3 11 21 -1.</_>
        <_>
          6 10 11 7 3.</_></rects>
      <tilted>0</tilted></_>
    <_>
      <rects>
        <_>
          6 3 13 3 -1.</_>
        <_>
          6 4 13 1 3.</_></rects>
      <tilted>0</tilted></_>
    <_>
      <rects>
        <_>
          6 10 12 10 -1.</_>
        <_>
          10 10 4 10 3.</_></rects>
      <tilted>0</tilted></_>
    <_>
      <rects>
        <_>
          6 10 15 10 -1.</_>
        <_>
          11 10 5 10 3.</_></rects>
      <tilted>0</tilted></_>
    <_>
      <rects>
        <_>
          7 2 13 3 -1.</_>
        <_>
          7 3 13 1 3.</_></rects>
      <tilted>0</tilted></_>
    <_>
      <rects>
        <_>
          7 3 17 21 -1.</_>
        <_>
          7 10 17 7 3.</_></rects>
      <tilted>0</tilted></_>
    <_>
      <rects>
        <_>
          7 4 10 3 -1.</_>
        <_>
          7 5 10 1 3.</_></rects>
      <tilted>0</tilted></_>
    <_>
      <rects>
        <_>
          7 4 10 6 -1.</_>
        <_>
          7 6 10 2 3.</_></rects>
      <tilted>0</tilted></_>
    <_>
      <rects>
        <_>
          7 7 10 3 -1.</_>
        <_>
          7 8 10 1 3.</_></rects>
      <tilted>0</tilted></_>
    <_>
      <rects>
        <_>
          7 11 15 12 -1.</_>
        <_>
          7 15 15 4 3.</_></rects>
      <tilted>0</tilted></_>
    <_>
      <rects>
        <_>
          7 12 11 12 -1.</_>
        <_>
          7 16 11 4 3.</_></rects>
      <tilted>0</tilted></_>
    <_>
      <rects>
        <_>
          7 15 9 2 -1.</_>
        <_>
          10 15 3 2 3.</_></rects>
      <tilted>0</tilted></_>
    <_>
      <rects>
        <_>
          7 15 15 4 -1.</_>
        <_>
          12 15 5 4 3.</_></rects>
      <tilted>0</tilted></_>
    <_>
      <rects>
        <_>
          8 3 8 3 -1.</_>
        <_>
          8 4 8 1 3.</_></rects>
      <tilted>0</tilted></_>
    <_>
      <rects>
        <_>
          8 3 11 3 -1.</_>
        <_>
          8 4 11 1 3.</_></rects>
      <tilted>0</tilted></_>
    <_>
      <rects>
        <_>
          8 4 7 18 -1.</_>
        <_>
          8 10 7 6 3.</_></rects>
      <tilted>0</tilted></_>
    <_>
      <rects>
        <_>
          8 5 3 6 -1.</_>
        <_>
          9 5 1 6 3.</_></rects>
      <tilted>0</tilted></_>
    <_>
      <rects>
        <_>
          8 5 10 6 -1.</_>
        <_>
          8 7 10 2 3.</_></rects>
      <tilted>0</tilted></_>
    <_>
      <rects>
        <_>
          8 11 15 9 -1.</_>
        <_>
          8 14 15 3 3.</_></rects>
      <tilted>0</tilted></_>
    <_>
      <rects>
        <_>
          8 14 9 10 -1.</_>
        <_>
          11 14 3 10 3.</_></rects>
      <tilted>0</tilted></_>
    <_>
      <rects>
        <_>
          9 4 5 6 -1.</_>
        <_>
          9 6 5 2 3.</_></rects>
      <tilted>0</tilted></_>
    <_>
      <rects>
        <_>
          9 6 4 4 -1.</_>
        <_>
          9 6 2 2 2.</_>
        <_>
          11 8 2 2 2.</_></rects>
      <tilted>0</tilted></_>
    <_>
      <rects>
        <_>
          9 11 15 6 -1.</_>
        <_>
          14 11 5 6 3.</_></rects>
      <tilted>0</tilted></_>
    <_>
      <rects>
        <_>
          9 11 6 9 -1.</_>
        <_>
          9 14 6 3 3.</_></rects>
      <tilted>0</tilted></_>
    <_>
      <rects>
        <_>
          10 3 3 5 -1.</_>
        <_>
          11 3 1 5 3.</_></rects>
      <tilted>0</tilted></_>
    <_>
      <rects>
        <_>
          10 7 12 15 -1.</_>
        <_>
          14 7 4 15 3.</_></rects>
      <tilted>0</tilted></_>
    <_>
      <rects>
        <_>
          10 11 5 12 -1.</_>
        <_>
          10 15 5 4 3.</_></rects>
      <tilted>0</tilted></_>
    <_>
      <rects>
        <_>
          10 18 2 6 -1.</_>
        <_>
          10 21 2 3 2.</_></rects>
      <tilted>0</tilted></_>
    <_>
      <rects>
        <_>
          11 4 3 5 -1.</_>
        <_>
          12 4 1 5 3.</_></rects>
      <tilted>0</tilted></_>
    <_>
      <rects>
        <_>
          11 9 3 15 -1.</_>
        <_>
          11 14 3 5 3.</_></rects>
      <tilted>0</tilted></_>
    <_>
      <rects>
        <_>
          12 2 3 11 -1.</_>
        <_>
          13 2 1 11 3.</_></rects>
      <tilted>0</tilted></_>
    <_>
      <rects>
        <_>
          12 2 6 9 -1.</_>
        <_>
          14 2 2 9 3.</_></rects>
      <tilted>0</tilted></_>
    <_>
      <rects>
        <_>
          13 5 7 12 -1.</_>
        <_>
          13 9 7 4 3.</_></rects>
      <tilted>0</tilted></_>
    <_>
      <rects>
        <_>
          13 8 9 13 -1.</_>
        <_>
          16 8 3 13 3.</_></rects>
      <tilted>0</tilted></_>
    <_>
      <rects>
        <_>
          13 10 9 9 -1.</_>
        <_>
          16 10 3 9 3.</_></rects>
      <tilted>0</tilted></_>
    <_>
      <rects>
        <_>
          13 11 9 7 -1.</_>
        <_>
          16 11 3 7 3.</_></rects>
      <tilted>0</tilted></_>
    <_>
      <rects>
        <_>
          14 4 8 15 -1.</_>
        <_>
          14 9 8 5 3.</_></rects>
      <tilted>0</tilted></_>
    <_>
      <rects>
        <_>
          14 11 9 3 -1.</_>
        <_>
          17 11 3 3 3.</_></rects>
      <tilted>0</tilted></_>
    <_>
      <rects>
        <_>
          15 2 9 11 -1.</_>
        <_>
          18 2 3 11 3.</_></rects>
      <tilted>0</tilted></_>
    <_>
      <rects>
        <_>
          18 3 2 18 -1.</_>
        <_>
          18 9 2 6 3.</_></rects>
      <tilted>0</tilted></_>
    <_>
      <rects>
        <_>
          19 0 2 2 -1.</_>
        <_>
          19 1 2 1 2.</_></rects>
      <tilted>0</tilted></_>
    <_>
      <rects>
        <_>
          19 0 5 6 -1.</_>
        <_>
          19 3 5 3 2.</_></rects>
      <tilted>0</tilted></_>
    <_>
      <rects>
        <_>
          20 2 2 1 -1.</_>
        <_>
          21 2 1 1 2.</_></rects>
      <tilted>0</tilted></_>
    <_>
      <rects>
        <_>
          20 9 4 1 -1.</_>
        <_>
          22 9 2 1 2.</_></rects>
      <tilted>0</tilted></_>
    <_>
      <rects>
        <_>
          20 10 2 1 -1.</_>
        <_>
          21 10 1 1 2.</_></rects>
      <tilted>0</tilted></_>
    <_>
      <rects>
        <_>
          21 10 2 2 -1.</_>
        <_>
          22 10 1 2 2.</_></rects>
      <tilted>0</tilted></_>
    <_>
      <rects>
        <_>
          22 1 2 4 -1.</_>
        <_>
          23 1 1 4 2.</_></rects>
      <tilted>0</tilted></_>
    <_>
      <rects>
        <_>
          22 1 1 12 -1.</_>
        <_>
          22 7 1 6 2.</_></rects>
      <tilted>0</tilted></_></features></cascade>
</opencv_storage>
