<?xml version="1.0"?>
<opencv_storage>
<cascade>
  <stageType>BOOST</stageType>
  <featureType>HAAR</featureType>
  <height>24</height>
  <width>24</width>
  <stageParams>
    <boostType>GAB</boostType>
    <minHitRate>9.9500000476837158e-01</minHitRate>
    <maxFalseAlarm>5.0000000000000000e-01</maxFalseAlarm>
    <weightTrimRate>9.4999998807907104e-01</weightTrimRate>
    <maxDepth>1</maxDepth>
    <maxWeakCount>100</maxWeakCount></stageParams>
  <featureParams>
    <maxCatCount>0</maxCatCount>
    <featSize>1</featSize>
    <mode>BASIC</mode></featureParams>
  <stageNum>18</stageNum>
  <stages>
    <!-- stage 0 -->
    <_>
      <maxWeakCount>4</maxWeakCount>
      <stageThreshold>-2.2464520931243896e+00</stageThreshold>
      <weakClassifiers>
        <_>
          <internalNodes>
            0 -1 30 -4.2546585202217102e-02</internalNodes>
          <leafValues>
            2.6940637826919556e-01 -9.5329087972640991e-01</leafValues></_>
        <_>
          <internalNodes>
            0 -1 40 -8.2483485341072083e-02</internalNodes>
          <leafValues>
            3.1800174713134766e-01 -9.6126848459243774e-01</leafValues></_>
        <_>
          <internalNodes>
            0 -1 48 -1.9896460697054863e-02</internalNodes>
          <leafValues>
            5.6228798627853394e-01 -7.8422200679779053e-01</leafValues></_>
        <_>
          <internalNodes>
            0 -1 0 1.2088738149031997e-03</internalNodes>
          <leafValues>
            -8.4066677093505859e-01 4.5232918858528137e-01</leafValues></_></weakClassifiers></_>
    <!-- stage 1 -->
    <_>
      <maxWeakCount>4</maxWeakCount>
      <stageThreshold>-2.0143163204193115e+00</stageThreshold>
      <weakClassifiers>
        <_>
          <internalNodes>
            0 -1 51 9.8942950367927551e-02</internalNodes>
          <leafValues>
            -8.9638316631317139e-01 5.6521737575531006e-01</leafValues></_>
        <_>
          <internalNodes>
            0 -1 40 -8.2664877176284790e-02</internalNodes>
          <leafValues>
            3.6485472321510315e-01 -9.5436608791351318e-01</leafValues></_>
        <_>
          <internalNodes>
            0 -1 34 -4.0355518460273743e-02</internalNodes>
          <leafValues>
            7.7475202083587646e-01 -6.0982894897460938e-01</leafValues></_>
        <_>
          <internalNodes>
            0 -1 29 2.3467279970645905e-02</internalNodes>
          <leafValues>
            -8.0517995357513428e-01 4.4626191258430481e-01</leafValues></_></weakClassifiers></_>
    <!-- stage 2 -->
    <_>
      <maxWeakCount>5</maxWeakCount>
      <stageThreshold>-1.9783588647842407e+00</stageThreshold>
      <weakClassifiers>
        <_>
          <internalNodes>
            0 -1 67 7.9900957643985748e-02</internalNodes>
          <leafValues>
            -8.6213409900665283e-01 7.2549021244049072e-01</leafValues></_>
        <_>
          <internalNodes>
            0 -1 3 8.6034767329692841e-02</internalNodes>
          <leafValues>
            -8.1276983022689819e-01 5.7361119985580444e-01</leafValues></_>
        <_>
          <internalNodes>
            0 -1 44 -5.2692569792270660e-02</internalNodes>
          <leafValues>
            4.7516930103302002e-01 -8.1484520435333252e-01</leafValues></_>
        <_>
          <internalNodes>
            0 -1 37 -8.3428293466567993e-02</internalNodes>
          <leafValues>
            8.2966917753219604e-01 -4.5028090476989746e-01</leafValues></_>
        <_>
          <internalNodes>
            0 -1 24 -6.1255954205989838e-02</internalNodes>
          <leafValues>
            9.6339595317840576e-01 -4.2470985651016235e-01</leafValues></_></weakClassifiers></_>
    <!-- stage 3 -->
    <_>
      <maxWeakCount>3</maxWeakCount>
      <stageThreshold>-1.3563070297241211e+00</stageThreshold>
      <weakClassifiers>
        <_>
          <internalNodes>
            0 -1 19 8.2903593778610229e-02</internalNodes>
          <leafValues>
            -8.3844012022018433e-01 7.6190477609634399e-01</leafValues></_>
        <_>
          <internalNodes>
            0 -1 49 -3.1759221106767654e-02</internalNodes>
          <leafValues>
            3.7079247832298279e-01 -8.1657516956329346e-01</leafValues></_>
        <_>
          <internalNodes>
            0 -1 41 -8.3345070481300354e-02</internalNodes>
          <leafValues>
            2.9870823025703430e-01 -9.6169978380203247e-01</leafValues></_></weakClassifiers></_>
    <!-- stage 4 -->
    <_>
      <maxWeakCount>3</maxWeakCount>
      <stageThreshold>-1.0812587738037109e+00</stageThreshold>
      <weakClassifiers>
        <_>
          <internalNodes>
            0 -1 8 7.8270003199577332e-02</internalNodes>
          <leafValues>
            -8.4673607349395752e-01 5.3846156597137451e-01</leafValues></_>
        <_>
          <internalNodes>
            0 -1 69 1.0193620622158051e-01</internalNodes>
          <leafValues>
            -5.9785640239715576e-01 8.1640815734863281e-01</leafValues></_>
        <_>
          <internalNodes>
            0 -1 76 -1.3141158888174687e-05</internalNodes>
          <leafValues>
            3.6333370208740234e-01 -9.1863405704498291e-01</leafValues></_></weakClassifiers></_>
    <!-- stage 5 -->
    <_>
      <maxWeakCount>4</maxWeakCount>
      <stageThreshold>-1.6727410554885864e+00</stageThreshold>
      <weakClassifiers>
        <_>
          <internalNodes>
            0 -1 76 -7.6534808613359928e-04</internalNodes>
          <leafValues>
            -8.9898991584777832e-01 2.9824560880661011e-01</leafValues></_>
        <_>
          <internalNodes>
            0 -1 68 1.7127057909965515e-01</internalNodes>
          <leafValues>
            -6.2991458177566528e-01 9.2990106344223022e-01</leafValues></_>
        <_>
          <internalNodes>
            0 -1 26 -1.1671689152717590e-01</internalNodes>
          <leafValues>
            6.8419438600540161e-01 -5.2671563625335693e-01</leafValues></_>
        <_>
          <internalNodes>
            0 -1 78 -2.1139392629265785e-03</internalNodes>
          <leafValues>
            -9.6294987201690674e-01 3.8287907838821411e-01</leafValues></_></weakClassifiers></_>
    <!-- stage 6 -->
    <_>
      <maxWeakCount>4</maxWeakCount>
      <stageThreshold>-1.5392870903015137e+00</stageThreshold>
      <weakClassifiers>
        <_>
          <internalNodes>
            0 -1 64 1.1521697044372559e-01</internalNodes>
          <leafValues>
            -8.2576459646224976e-01 6.3414633274078369e-01</leafValues></_>
        <_>
          <internalNodes>
            0 -1 57 1.0060947388410568e-01</internalNodes>
          <leafValues>
            -6.4872252941131592e-01 8.0702221393585205e-01</leafValues></_>
        <_>
          <internalNodes>
            0 -1 76 -8.2795368507504463e-04</internalNodes>
          <leafValues>
            -6.0969817638397217e-01 7.0460277795791626e-01</leafValues></_>
        <_>
          <internalNodes>
            0 -1 33 -2.9254592955112457e-02</internalNodes>
          <leafValues>
            5.4489827156066895e-01 -7.3093038797378540e-01</leafValues></_></weakClassifiers></_>
    <!-- stage 7 -->
    <_>
      <maxWeakCount>2</maxWeakCount>
      <stageThreshold>-7.3856759071350098e-01</stageThreshold>
      <weakClassifiers>
        <_>
          <internalNodes>
            0 -1 23 1.2185911834239960e-01</internalNodes>
          <leafValues>
            -8.2439923286437988e-01 6.7088609933853149e-01</leafValues></_>
        <_>
          <internalNodes>
            0 -1 77 3.9928028127178550e-04</internalNodes>
          <leafValues>
            8.5831686854362488e-02 -9.9588298797607422e-01</leafValues></_></weakClassifiers></_>
    <!-- stage 8 -->
    <_>
      <maxWeakCount>5</maxWeakCount>
      <stageThreshold>-1.2241787910461426e+00</stageThreshold>
      <weakClassifiers>
        <_>
          <internalNodes>
            0 -1 53 -1.6388852894306183e-01</internalNodes>
          <leafValues>
            5.6756758689880371e-01 -8.1048756837844849e-01</leafValues></_>
        <_>
          <internalNodes>
            0 -1 56 1.5222725272178650e-01</internalNodes>
          <leafValues>
            -6.1688053607940674e-01 5.9072494506835938e-01</leafValues></_>
        <_>
          <internalNodes>
            0 -1 36 -1.0246341675519943e-01</internalNodes>
          <leafValues>
            4.1109493374824524e-01 -7.4563992023468018e-01</leafValues></_>
        <_>
          <internalNodes>
            0 -1 2 1.0262770950794220e-01</internalNodes>
          <leafValues>
            -4.6339023113250732e-01 7.3057931661605835e-01</leafValues></_>
        <_>
          <internalNodes>
            0 -1 13 -7.8835501335561275e-04</internalNodes>
          <leafValues>
            -9.3848490715026855e-01 3.5679733753204346e-01</leafValues></_></weakClassifiers></_>
    <!-- stage 9 -->
    <_>
      <maxWeakCount>3</maxWeakCount>
      <stageThreshold>-1.0554250478744507e+00</stageThreshold>
      <weakClassifiers>
        <_>
          <internalNodes>
            0 -1 21 1.9025057554244995e-01</internalNodes>
          <leafValues>
            -7.9584461450576782e-01 7.7777779102325439e-01</leafValues></_>
        <_>
          <internalNodes>
            0 -1 13 1.9760378636419773e-03</internalNodes>
          <leafValues>
            1.9186578691005707e-01 -9.8097449541091919e-01</leafValues></_>
        <_>
          <internalNodes>
            0 -1 27 -4.0473025292158127e-02</internalNodes>
          <leafValues>
            7.9260665178298950e-01 -4.5144620537757874e-01</leafValues></_></weakClassifiers></_>
    <!-- stage 10 -->
    <_>
      <maxWeakCount>6</maxWeakCount>
      <stageThreshold>-1.8827434778213501e+00</stageThreshold>
      <weakClassifiers>
        <_>
          <internalNodes>
            0 -1 61 -1.1907425522804260e-01</internalNodes>
          <leafValues>
            6.1538463830947876e-01 -7.8539222478866577e-01</leafValues></_>
        <_>
          <internalNodes>
            0 -1 38 -3.4473080188035965e-02</internalNodes>
          <leafValues>
            4.6827453374862671e-01 -6.1036509275436401e-01</leafValues></_>
        <_>
          <internalNodes>
            0 -1 73 1.2064854672644287e-05</internalNodes>
          <leafValues>
            -7.8797835111618042e-01 3.3945348858833313e-01</leafValues></_>
        <_>
          <internalNodes>
            0 -1 74 -1.2064854672644287e-05</internalNodes>
          <leafValues>
            2.9981872439384460e-01 -7.4409335851669312e-01</leafValues></_>
        <_>
          <internalNodes>
            0 -1 43 1.4908472076058388e-03</internalNodes>
          <leafValues>
            -5.2276730537414551e-01 4.5760077238082886e-01</leafValues></_>
        <_>
          <internalNodes>
            0 -1 35 -1.8717080354690552e-02</internalNodes>
          <leafValues>
            5.2394080162048340e-01 -5.1138651371002197e-01</leafValues></_></weakClassifiers></_>
    <!-- stage 11 -->
    <_>
      <maxWeakCount>6</maxWeakCount>
      <stageThreshold>-1.5697021484375000e+00</stageThreshold>
      <weakClassifiers>
        <_>
          <internalNodes>
            0 -1 31 -7.3049589991569519e-02</internalNodes>
          <leafValues>
            5.0000000000000000e-01 -7.9871910810470581e-01</leafValues></_>
        <_>
          <internalNodes>
            0 -1 5 1.3254708051681519e-01</internalNodes>
          <leafValues>
            -6.0329896211624146e-01 4.1460511088371277e-01</leafValues></_>
        <_>
          <internalNodes>
            0 -1 58 2.6087377220392227e-02</internalNodes>
          <leafValues>
            -3.6611735820770264e-01 6.8406701087951660e-01</leafValues></_>
        <_>
          <internalNodes>
            0 -1 9 1.2333766790106893e-05</internalNodes>
          <leafValues>
            -6.9429922103881836e-01 3.7718388438224792e-01</leafValues></_>
        <_>
          <internalNodes>
            0 -1 75 -1.2064854672644287e-05</internalNodes>
          <leafValues>
            2.9621866345405579e-01 -7.9661780595779419e-01</leafValues></_>
        <_>
          <internalNodes>
            0 -1 52 9.2169819399714470e-03</internalNodes>
          <leafValues>
            -3.9557930827140808e-01 6.3916599750518799e-01</leafValues></_></weakClassifiers></_>
    <!-- stage 12 -->
    <_>
      <maxWeakCount>6</maxWeakCount>
      <stageThreshold>-2.0068769454956055e+00</stageThreshold>
      <weakClassifiers>
        <_>
          <internalNodes>
            0 -1 66 6.0277476906776428e-02</internalNodes>
          <leafValues>
            -8.3480823040008545e-01 6.9444447755813599e-02</leafValues></_>
        <_>
          <internalNodes>
            0 -1 62 8.7346971035003662e-02</internalNodes>
          <leafValues>
            -4.8806908726692200e-01 7.5378859043121338e-01</leafValues></_>
        <_>
          <internalNodes>
            0 -1 4 7.2438095230609179e-04</internalNodes>
          <leafValues>
            2.4163743853569031e-01 -9.8309159278869629e-01</leafValues></_>
        <_>
          <internalNodes>
            0 -1 17 -4.6569999540224671e-04</internalNodes>
          <leafValues>
            -7.8768736124038696e-01 2.6070675253868103e-01</leafValues></_>
        <_>
          <internalNodes>
            0 -1 50 3.0791323632001877e-02</internalNodes>
          <leafValues>
            -2.9269272089004517e-01 8.7029999494552612e-01</leafValues></_>
        <_>
          <internalNodes>
            0 -1 20 -2.6257766876369715e-04</internalNodes>
          <leafValues>
            -8.9365094900131226e-01 2.8379002213478088e-01</leafValues></_></weakClassifiers></_>
    <!-- stage 13 -->
    <_>
      <maxWeakCount>5</maxWeakCount>
      <stageThreshold>-1.5832350254058838e+00</stageThreshold>
      <weakClassifiers>
        <_>
          <internalNodes>
            0 -1 60 2.0471349358558655e-01</internalNodes>
          <leafValues>
            -7.8765881061553955e-01 4.9152541160583496e-01</leafValues></_>
        <_>
          <internalNodes>
            0 -1 65 3.6628160625696182e-02</internalNodes>
          <leafValues>
            -5.5122399330139160e-01 5.3977787494659424e-01</leafValues></_>
        <_>
          <internalNodes>
            0 -1 15 6.5819872543215752e-04</internalNodes>
          <leafValues>
            1.8694733083248138e-01 -1.</leafValues></_>
        <_>
          <internalNodes>
            0 -1 16 7.1124536916613579e-03</internalNodes>
          <leafValues>
            1.4514952898025513e-01 -9.2387449741363525e-01</leafValues></_>
        <_>
          <internalNodes>
            0 -1 59 4.0998170152306557e-03</internalNodes>
          <leafValues>
            -3.9782223105430603e-01 4.9257493019104004e-01</leafValues></_></weakClassifiers></_>
    <!-- stage 14 -->
    <_>
      <maxWeakCount>6</maxWeakCount>
      <stageThreshold>-1.5501856803894043e+00</stageThreshold>
      <weakClassifiers>
        <_>
          <internalNodes>
            0 -1 39 8.1082157790660858e-02</internalNodes>
          <leafValues>
            -7.8139114379882813e-01 4.8148149251937866e-01</leafValues></_>
        <_>
          <internalNodes>
            0 -1 55 -2.3445516824722290e-02</internalNodes>
          <leafValues>
            1.5384647250175476e-01 -6.9653904438018799e-01</leafValues></_>
        <_>
          <internalNodes>
            0 -1 1 1.8187044188380241e-03</internalNodes>
          <leafValues>
            -5.2078795433044434e-01 3.5972273349761963e-01</leafValues></_>
        <_>
          <internalNodes>
            0 -1 72 -9.9842975032515824e-05</internalNodes>
          <leafValues>
            2.2005453705787659e-01 -8.7106120586395264e-01</leafValues></_>
        <_>
          <internalNodes>
            0 -1 7 9.7946599125862122e-02</internalNodes>
          <leafValues>
            -3.4998184442520142e-01 6.5457105636596680e-01</leafValues></_>
        <_>
          <internalNodes>
            0 -1 22 -4.5934211462736130e-02</internalNodes>
          <leafValues>
            8.5500878095626831e-01 -2.1548800170421600e-01</leafValues></_></weakClassifiers></_>
    <!-- stage 15 -->
    <_>
      <maxWeakCount>5</maxWeakCount>
      <stageThreshold>-1.5005958080291748e+00</stageThreshold>
      <weakClassifiers>
        <_>
          <internalNodes>
            0 -1 45 3.7929482758045197e-02</internalNodes>
          <leafValues>
            -8.1695568561553955e-01 7.3170728981494904e-02</leafValues></_>
        <_>
          <internalNodes>
            0 -1 42 -5.6806351989507675e-02</internalNodes>
          <leafValues>
            3.9206758141517639e-01 -5.4387670755386353e-01</leafValues></_>
        <_>
          <internalNodes>
            0 -1 14 -3.4899893216788769e-04</internalNodes>
          <leafValues>
            -1. 1.6341096162796021e-01</leafValues></_>
        <_>
          <internalNodes>
            0 -1 11 -5.6814802810549736e-03</internalNodes>
          <leafValues>
            -8.4774851799011230e-01 2.3139017820358276e-01</leafValues></_>
        <_>
          <internalNodes>
            0 -1 28 -8.6616612970829010e-02</internalNodes>
          <leafValues>
            6.4304316043853760e-01 -3.4555226564407349e-01</leafValues></_></weakClassifiers></_>
    <!-- stage 16 -->
    <_>
      <maxWeakCount>6</maxWeakCount>
      <stageThreshold>-1.3307876586914063e+00</stageThreshold>
      <weakClassifiers>
        <_>
          <internalNodes>
            0 -1 63 -1.0628740489482880e-01</internalNodes>
          <leafValues>
            3.8983049988746643e-01 -7.8221416473388672e-01</leafValues></_>
        <_>
          <internalNodes>
            0 -1 46 2.4199003819376230e-03</internalNodes>
          <leafValues>
            -5.7179301977157593e-01 3.8041317462921143e-01</leafValues></_>
        <_>
          <internalNodes>
            0 -1 12 9.7308885306119919e-03</internalNodes>
          <leafValues>
            2.2314360737800598e-01 -7.9977124929428101e-01</leafValues></_>
        <_>
          <internalNodes>
            0 -1 25 2.7321286324877292e-05</internalNodes>
          <leafValues>
            -6.8627524375915527e-01 2.5853884220123291e-01</leafValues></_>
        <_>
          <internalNodes>
            0 -1 32 -4.5007485896348953e-03</internalNodes>
          <leafValues>
            3.4063997864723206e-01 -5.8848619461059570e-01</leafValues></_>
        <_>
          <internalNodes>
            0 -1 10 -4.5888572931289673e-02</internalNodes>
          <leafValues>
            -1. 2.2381196916103363e-01</leafValues></_></weakClassifiers></_>
    <!-- stage 17 -->
    <_>
      <maxWeakCount>6</maxWeakCount>
      <stageThreshold>-1.6225359439849854e+00</stageThreshold>
      <weakClassifiers>
        <_>
          <internalNodes>
            0 -1 54 5.5998042225837708e-03</internalNodes>
          <leafValues>
            -8.5120350122451782e-01 -2.4696356058120728e-01</leafValues></_>
        <_>
          <internalNodes>
            0 -1 6 2.9158738470869139e-05</internalNodes>
          <leafValues>
            -7.4293678998947144e-01 4.8938103020191193e-02</leafValues></_>
        <_>
          <internalNodes>
            0 -1 47 2.0262489560991526e-03</internalNodes>
          <leafValues>
            -4.6129411458969116e-01 4.0957093238830566e-01</leafValues></_>
        <_>
          <internalNodes>
            0 -1 18 -1.2157283723354340e-02</internalNodes>
          <leafValues>
            2.7994510531425476e-01 -7.2343248128890991e-01</leafValues></_>
        <_>
          <internalNodes>
            0 -1 70 -8.6839869618415833e-03</internalNodes>
          <leafValues>
            -8.2227218151092529e-01 2.3166315257549286e-01</leafValues></_>
        <_>
          <internalNodes>
            0 -1 71 5.8290420565754175e-04</internalNodes>
          <leafValues>
            1.9908066093921661e-01 -8.7058466672897339e-01</leafValues></_></weakClassifiers></_></stages>
  <features>
    <_>
      <rects>
        <_>
          0 0 8 2 -1.</_>
        <_>
          4 0 4 2 2.</_></rects>
      <tilted>0</tilted></_>
    <_>
      <rects>
        <_>
          0 3 16 3 -1.</_>
        <_>
          0 4 16 1 3.</_></rects>
      <tilted>0</tilted></_>
    <_>
      <rects>
        <_>
          0 4 8 16 -1.</_>
        <_>
          4 4 4 16 2.</_></rects>
      <tilted>0</tilted></_>
    <_>
      <rects>
        <_>
          0 4 24 4 -1.</_>
        <_>
          8 4 8 4 3.</_></rects>
      <tilted>0</tilted></_>
    <_>
      <rects>
        <_>
          0 6 6 3 -1.</_>
        <_>
          0 7 6 1 3.</_></rects>
      <tilted>0</tilted></_>
    <_>
      <rects>
        <_>
          0 7 10 17 -1.</_>
        <_>
          5 7 5 17 2.</_></rects>
      <tilted>0</tilted></_>
    <_>
      <rects>
        <_>
          0 8 2 1 -1.</_>
        <_>
          1 8 1 1 2.</_></rects>
      <tilted>0</tilted></_>
    <_>
      <rects>
        <_>
          0 8 8 10 -1.</_>
        <_>
          4 8 4 10 2.</_></rects>
      <tilted>0</tilted></_>
    <_>
      <rects>
        <_>
          0 9 8 8 -1.</_>
        <_>
          4 9 4 8 2.</_></rects>
      <tilted>0</tilted></_>
    <_>
      <rects>
        <_>
          0 10 2 1 -1.</_>
        <_>
          1 10 1 1 2.</_></rects>
      <tilted>0</tilted></_>
    <_>
      <rects>
        <_>
          0 11 24 6 -1.</_>
        <_>
          0 14 24 3 2.</_></rects>
      <tilted>0</tilted></_>
    <_>
      <rects>
        <_>
          0 13 24 1 -1.</_>
        <_>
          12 13 12 1 2.</_></rects>
      <tilted>0</tilted></_>
    <_>
      <rects>
        <_>
          0 16 24 1 -1.</_>
        <_>
          12 16 12 1 2.</_></rects>
      <tilted>0</tilted></_>
    <_>
      <rects>
        <_>
          1 2 3 6 -1.</_>
        <_>
          1 4 3 2 3.</_></rects>
      <tilted>0</tilted></_>
    <_>
      <rects>
        <_>
          1 3 2 3 -1.</_>
        <_>
          1 4 2 1 3.</_></rects>
      <tilted>0</tilted></_>
    <_>
      <rects>
        <_>
          1 3 3 3 -1.</_>
        <_>
          1 4 3 1 3.</_></rects>
      <tilted>0</tilted></_>
    <_>
      <rects>
        <_>
          1 5 6 9 -1.</_>
        <_>
          1 8 6 3 3.</_></rects>
      <tilted>0</tilted></_>
    <_>
      <rects>
        <_>
          1 6 5 3 -1.</_>
        <_>
          1 7 5 1 3.</_></rects>
      <tilted>0</tilted></_>
    <_>
      <rects>
        <_>
          1 9 13 8 -1.</_>
        <_>
          1 13 13 4 2.</_></rects>
      <tilted>0</tilted></_>
    <_>
      <rects>
        <_>
          1 10 9 9 -1.</_>
        <_>
          4 10 3 9 3.</_></rects>
      <tilted>0</tilted></_>
    <_>
      <rects>
        <_>
          2 3 2 3 -1.</_>
        <_>
          2 4 2 1 3.</_></rects>
      <tilted>0</tilted></_>
    <_>
      <rects>
        <_>
          2 6 9 16 -1.</_>
        <_>
          5 6 3 16 3.</_></rects>
      <tilted>0</tilted></_>
    <_>
      <rects>
        <_>
          2 10 9 9 -1.</_>
        <_>
          5 10 3 9 3.</_></rects>
      <tilted>0</tilted></_>
    <_>
      <rects>
        <_>
          2 10 9 13 -1.</_>
        <_>
          5 10 3 13 3.</_></rects>
      <tilted>0</tilted></_>
    <_>
      <rects>
        <_>
          2 13 12 7 -1.</_>
        <_>
          6 13 4 7 3.</_></rects>
      <tilted>0</tilted></_>
    <_>
      <rects>
        <_>
          3 0 2 1 -1.</_>
        <_>
          4 0 1 1 2.</_></rects>
      <tilted>0</tilted></_>
    <_>
      <rects>
        <_>
          3 0 12 20 -1.</_>
        <_>
          3 0 6 10 2.</_>
        <_>
          9 10 6 10 2.</_></rects>
      <tilted>0</tilted></_>
    <_>
      <rects>
        <_>
          3 4 9 6 -1.</_>
        <_>
          6 4 3 6 3.</_></rects>
      <tilted>0</tilted></_>
    <_>
      <rects>
        <_>
          3 11 12 9 -1.</_>
        <_>
          7 11 4 9 3.</_></rects>
      <tilted>0</tilted></_>
    <_>
      <rects>
        <_>
          4 0 13 12 -1.</_>
        <_>
          4 4 13 4 3.</_></rects>
      <tilted>0</tilted></_>
    <_>
      <rects>
        <_>
          4 1 10 16 -1.</_>
        <_>
          4 1 5 8 2.</_>
        <_>
          9 9 5 8 2.</_></rects>
      <tilted>0</tilted></_>
    <_>
      <rects>
        <_>
          4 4 9 9 -1.</_>
        <_>
          7 4 3 9 3.</_></rects>
      <tilted>0</tilted></_>
    <_>
      <rects>
        <_>
          4 13 12 6 -1.</_>
        <_>
          4 15 12 2 3.</_></rects>
      <tilted>0</tilted></_>
    <_>
      <rects>
        <_>
          5 12 13 12 -1.</_>
        <_>
          5 16 13 4 3.</_></rects>
      <tilted>0</tilted></_>
    <_>
      <rects>
        <_>
          5 13 12 4 -1.</_>
        <_>
          9 13 4 4 3.</_></rects>
      <tilted>0</tilted></_>
    <_>
      <rects>
        <_>
          5 15 14 9 -1.</_>
        <_>
          5 18 14 3 3.</_></rects>
      <tilted>0</tilted></_>
    <_>
      <rects>
        <_>
          6 3 10 16 -1.</_>
        <_>
          6 11 10 8 2.</_></rects>
      <tilted>0</tilted></_>
    <_>
      <rects>
        <_>
          6 9 12 10 -1.</_>
        <_>
          10 9 4 10 3.</_></rects>
      <tilted>0</tilted></_>
    <_>
      <rects>
        <_>
          6 15 12 3 -1.</_>
        <_>
          10 15 4 3 3.</_></rects>
      <tilted>0</tilted></_>
    <_>
      <rects>
        <_>
          7 2 7 9 -1.</_>
        <_>
          7 5 7 3 3.</_></rects>
      <tilted>0</tilted></_>
    <_>
      <rects>
        <_>
          7 3 10 21 -1.</_>
        <_>
          7 10 10 7 3.</_></rects>
      <tilted>0</tilted></_>
    <_>
      <rects>
        <_>
          7 3 17 21 -1.</_>
        <_>
          7 10 17 7 3.</_></rects>
      <tilted>0</tilted></_>
    <_>
      <rects>
        <_>
          7 11 9 10 -1.</_>
        <_>
          10 11 3 10 3.</_></rects>
      <tilted>0</tilted></_>
    <_>
      <rects>
        <_>
          8 3 8 3 -1.</_>
        <_>
          8 4 8 1 3.</_></rects>
      <tilted>0</tilted></_>
    <_>
      <rects>
        <_>
          9 2 5 14 -1.</_>
        <_>
          9 9 5 7 2.</_></rects>
      <tilted>0</tilted></_>
    <_>
      <rects>
        <_>
          9 3 6 11 -1.</_>
        <_>
          11 3 2 11 3.</_></rects>
      <tilted>0</tilted></_>
    <_>
      <rects>
        <_>
          9 4 3 5 -1.</_>
        <_>
          10 4 1 5 3.</_></rects>
      <tilted>0</tilted></_>
    <_>
      <rects>
        <_>
          9 4 7 3 -1.</_>
        <_>
          9 5 7 1 3.</_></rects>
      <tilted>0</tilted></_>
    <_>
      <rects>
        <_>
          9 12 5 12 -1.</_>
        <_>
          9 16 5 4 3.</_></rects>
      <tilted>0</tilted></_>
    <_>
      <rects>
        <_>
          9 12 9 12 -1.</_>
        <_>
          9 16 9 4 3.</_></rects>
      <tilted>0</tilted></_>
    <_>
      <rects>
        <_>
          9 15 12 2 -1.</_>
        <_>
          13 15 4 2 3.</_></rects>
      <tilted>0</tilted></_>
    <_>
      <rects>
        <_>
          10 0 12 18 -1.</_>
        <_>
          10 0 6 9 2.</_>
        <_>
          16 9 6 9 2.</_></rects>
      <tilted>0</tilted></_>
    <_>
      <rects>
        <_>
          10 4 6 3 -1.</_>
        <_>
          12 4 2 3 3.</_></rects>
      <tilted>0</tilted></_>
    <_>
      <rects>
        <_>
          10 7 12 15 -1.</_>
        <_>
          14 7 4 15 3.</_></rects>
      <tilted>0</tilted></_>
    <_>
      <rects>
        <_>
          10 10 4 6 -1.</_>
        <_>
          10 12 4 2 3.</_></rects>
      <tilted>0</tilted></_>
    <_>
      <rects>
        <_>
          10 11 5 12 -1.</_>
        <_>
          10 15 5 4 3.</_></rects>
      <tilted>0</tilted></_>
    <_>
      <rects>
        <_>
          11 0 12 19 -1.</_>
        <_>
          15 0 4 19 3.</_></rects>
      <tilted>0</tilted></_>
    <_>
      <rects>
        <_>
          11 8 12 9 -1.</_>
        <_>
          15 8 4 9 3.</_></rects>
      <tilted>0</tilted></_>
    <_>
      <rects>
        <_>
          12 2 6 9 -1.</_>
        <_>
          14 2 2 9 3.</_></rects>
      <tilted>0</tilted></_>
    <_>
      <rects>
        <_>
          12 3 3 10 -1.</_>
        <_>
          13 3 1 10 3.</_></rects>
      <tilted>0</tilted></_>
    <_>
      <rects>
        <_>
          13 2 9 19 -1.</_>
        <_>
          16 2 3 19 3.</_></rects>
      <tilted>0</tilted></_>
    <_>
      <rects>
        <_>
          13 6 9 14 -1.</_>
        <_>
          16 6 3 14 3.</_></rects>
      <tilted>0</tilted></_>
    <_>
      <rects>
        <_>
          13 11 9 7 -1.</_>
        <_>
          16 11 3 7 3.</_></rects>
      <tilted>0</tilted></_>
    <_>
      <rects>
        <_>
          14 3 6 19 -1.</_>
        <_>
          16 3 2 19 3.</_></rects>
      <tilted>0</tilted></_>
    <_>
      <rects>
        <_>
          14 9 8 13 -1.</_>
        <_>
          18 9 4 13 2.</_></rects>
      <tilted>0</tilted></_>
    <_>
      <rects>
        <_>
          14 15 8 4 -1.</_>
        <_>
          18 15 4 4 2.</_></rects>
      <tilted>0</tilted></_>
    <_>
      <rects>
        <_>
          14 15 8 8 -1.</_>
        <_>
          18 15 4 8 2.</_></rects>
      <tilted>0</tilted></_>
    <_>
      <rects>
        <_>
          15 1 9 15 -1.</_>
        <_>
          18 1 3 15 3.</_></rects>
      <tilted>0</tilted></_>
    <_>
      <rects>
        <_>
          15 3 9 18 -1.</_>
        <_>
          18 3 3 18 3.</_></rects>
      <tilted>0</tilted></_>
    <_>
      <rects>
        <_>
          15 10 9 13 -1.</_>
        <_>
          18 10 3 13 3.</_></rects>
      <tilted>0</tilted></_>
    <_>
      <rects>
        <_>
          16 7 4 12 -1.</_>
        <_>
          16 11 4 4 3.</_></rects>
      <tilted>0</tilted></_>
    <_>
      <rects>
        <_>
          17 13 4 3 -1.</_>
        <_>
          17 14 4 1 3.</_></rects>
      <tilted>0</tilted></_>
    <_>
      <rects>
        <_>
          18 0 6 1 -1.</_>
        <_>
          21 0 3 1 2.</_></rects>
      <tilted>0</tilted></_>
    <_>
      <rects>
        <_>
          19 0 2 2 -1.</_>
        <_>
          19 1 2 1 2.</_></rects>
      <tilted>0</tilted></_>
    <_>
      <rects>
        <_>
          21 8 2 1 -1.</_>
        <_>
          22 8 1 1 2.</_></rects>
      <tilted>0</tilted></_>
    <_>
      <rects>
        <_>
          21 10 2 1 -1.</_>
        <_>
          22 10 1 1 2.</_></rects>
      <tilted>0</tilted></_>
    <_>
      <rects>
        <_>
          21 10 2 4 -1.</_>
        <_>
          22 10 1 4 2.</_></rects>
      <tilted>0</tilted></_>
    <_>
      <rects>
        <_>
          22 8 2 5 -1.</_>
        <_>
          23 8 1 5 2.</_></rects>
      <tilted>0</tilted></_>
    <_>
      <rects>
        <_>
          23 0 1 12 -1.</_>
        <_>
          23 6 1 6 2.</_></rects>
      <tilted>0</tilted></_></features></cascade>
</opencv_storage>
